digraph Tree {
node [shape=box, style="filled, rounded", color="black", fontname=helvetica] ;
edge [fontname=helvetica] ;
0 [label="Gene_7 <= 1.4\ngini = 0.75\nsamples = 353\nvalue = [207, 42, 89, 103, 95]\nclass = BRCA", fillcolor="#e581393d"] ;
1 [label="Gene_10 <= -0.03\ngini = 0.68\nsamples = 286\nvalue = [207, 42, 89, 103, 0]\nclass = BRCA", fillcolor="#e581394e"] ;
0 -> 1 [labeldistance=2.5, labelangle=45, headlabel="True"] ;
2 [label="Gene_0 <= 0.67\ngini = 0.56\nsamples = 220\nvalue = [203, 42, 89, 5, 0]\nclass = BRCA", fillcolor="#e5813974"] ;
1 -> 2 ;
3 [label="Gene_7 <= -0.21\ngini = 0.32\nsamples = 167\nvalue = [203, 42, 2, 5, 0]\nclass = BRCA", fillcolor="#e58139c4"] ;
2 -> 3 ;
4 [label="Gene_4 <= 0.41\ngini = 0.23\nsamples = 127\nvalue = [164, 18, 1, 5, 0]\nclass = BRCA", fillcolor="#e58139db"] ;
3 -> 4 ;
5 [label="Gene_4 <= -0.39\ngini = 0.06\nsamples = 113\nvalue = [164, 0, 0, 5, 0]\nclass = BRCA", fillcolor="#e58139f7"] ;
4 -> 5 ;
6 [label="Gene_6 <= -0.59\ngini = 0.04\nsamples = 99\nvalue = [151, 0, 0, 3, 0]\nclass = BRCA", fillcolor="#e58139fa"] ;
5 -> 6 ;
7 [label="Gene_11 <= -0.27\ngini = 0.16\nsamples = 24\nvalue = [31, 0, 0, 3, 0]\nclass = BRCA", fillcolor="#e58139e6"] ;
6 -> 7 ;
8 [label="Gene_8 <= -0.01\ngini = 0.07\nsamples = 21\nvalue = [28, 0, 0, 1, 0]\nclass = BRCA", fillcolor="#e58139f6"] ;
7 -> 8 ;
9 [label="gini = 0.0\nsamples = 19\nvalue = [26, 0, 0, 0, 0]\nclass = BRCA", fillcolor="#e58139ff"] ;
8 -> 9 ;
10 [label="Gene_8 <= 0.66\ngini = 0.44\nsamples = 2\nvalue = [2, 0, 0, 1, 0]\nclass = BRCA", fillcolor="#e581397f"] ;
8 -> 10 ;
11 [label="gini = 0.0\nsamples = 1\nvalue = [0, 0, 0, 1, 0]\nclass = LUAD", fillcolor="#3c39e5ff"] ;
10 -> 11 ;
12 [label="gini = 0.0\nsamples = 1\nvalue = [2, 0, 0, 0, 0]\nclass = BRCA", fillcolor="#e58139ff"] ;
10 -> 12 ;
13 [label="Gene_3 <= -0.54\ngini = 0.48\nsamples = 3\nvalue = [3, 0, 0, 2, 0]\nclass = BRCA", fillcolor="#e5813955"] ;
7 -> 13 ;
14 [label="gini = 0.0\nsamples = 1\nvalue = [0, 0, 0, 2, 0]\nclass = LUAD", fillcolor="#3c39e5ff"] ;
13 -> 14 ;
15 [label="gini = 0.0\nsamples = 2\nvalue = [3, 0, 0, 0, 0]\nclass = BRCA", fillcolor="#e58139ff"] ;
13 -> 15 ;
16 [label="gini = 0.0\nsamples = 75\nvalue = [120, 0, 0, 0, 0]\nclass = BRCA", fillcolor="#e58139ff"] ;
6 -> 16 ;
17 [label="Gene_5 <= -0.2\ngini = 0.23\nsamples = 14\nvalue = [13, 0, 0, 2, 0]\nclass = BRCA", fillcolor="#e58139d8"] ;
5 -> 17 ;
18 [label="gini = 0.0\nsamples = 12\nvalue = [13, 0, 0, 0, 0]\nclass = BRCA", fillcolor="#e58139ff"] ;
17 -> 18 ;
19 [label="gini = 0.0\nsamples = 2\nvalue = [0, 0, 0, 2, 0]\nclass = LUAD", fillcolor="#3c39e5ff"] ;
17 -> 19 ;
20 [label="Gene_5 <= 0.92\ngini = 0.1\nsamples = 14\nvalue = [0, 18, 1, 0, 0]\nclass = COAD", fillcolor="#7be539f1"] ;
4 -> 20 ;
21 [label="gini = 0.0\nsamples = 13\nvalue = [0, 18, 0, 0, 0]\nclass = COAD", fillcolor="#7be539ff"] ;
20 -> 21 ;
22 [label="gini = 0.0\nsamples = 1\nvalue = [0, 0, 1, 0, 0]\nclass = KIRC", fillcolor="#39e5c5ff"] ;
20 -> 22 ;
23 [label="Gene_4 <= 0.57\ngini = 0.49\nsamples = 40\nvalue = [39, 24, 1, 0, 0]\nclass = BRCA", fillcolor="#e5813960"] ;
3 -> 23 ;
24 [label="Gene_8 <= 0.89\ngini = 0.05\nsamples = 25\nvalue = [39, 0, 1, 0, 0]\nclass = BRCA", fillcolor="#e58139f8"] ;
23 -> 24 ;
25 [label="gini = 0.0\nsamples = 24\nvalue = [39, 0, 0, 0, 0]\nclass = BRCA", fillcolor="#e58139ff"] ;
24 -> 25 ;
26 [label="gini = 0.0\nsamples = 1\nvalue = [0, 0, 1, 0, 0]\nclass = KIRC", fillcolor="#39e5c5ff"] ;
24 -> 26 ;
27 [label="gini = 0.0\nsamples = 15\nvalue = [0, 24, 0, 0, 0]\nclass = COAD", fillcolor="#7be539ff"] ;
23 -> 27 ;
28 [label="gini = 0.0\nsamples = 53\nvalue = [0, 0, 87, 0, 0]\nclass = KIRC", fillcolor="#39e5c5ff"] ;
2 -> 28 ;
29 [label="Gene_10 <= 1.67\ngini = 0.08\nsamples = 66\nvalue = [4, 0, 0, 98, 0]\nclass = LUAD", fillcolor="#3c39e5f5"] ;
1 -> 29 ;
30 [label="Gene_5 <= -0.77\ngini = 0.39\nsamples = 9\nvalue = [4, 0, 0, 11, 0]\nclass = LUAD", fillcolor="#3c39e5a2"] ;
29 -> 30 ;
31 [label="gini = 0.0\nsamples = 2\nvalue = [4, 0, 0, 0, 0]\nclass = BRCA", fillcolor="#e58139ff"] ;
30 -> 31 ;
32 [label="gini = 0.0\nsamples = 7\nvalue = [0, 0, 0, 11, 0]\nclass = LUAD", fillcolor="#3c39e5ff"] ;
30 -> 32 ;
33 [label="gini = 0.0\nsamples = 57\nvalue = [0, 0, 0, 87, 0]\nclass = LUAD", fillcolor="#3c39e5ff"] ;
29 -> 33 ;
34 [label="gini = 0.0\nsamples = 67\nvalue = [0, 0, 0, 0, 95]\nclass = PRAD", fillcolor="#e539c0ff"] ;
0 -> 34 [labeldistance=2.5, labelangle=-45, headlabel="False"] ;
}